/** 
 * @file    model_mlp_f32_2_15_5_1.c
 * @brief
 *
 * @author  guo yao
 * @date    2025/11/10
 * @history
 * |    Date    |  Version  |   Author    |    Description   |
 * |------------| --------  |-------------|------------------|
 *
**/

#include "power_ai/ann/fcnn_eval.h"
#include "power_ai/common/typedef.h"

#define N_FEATURES (16)
#define N_OUT (1)

fcnn_eval *nn;

float32 weight0[32 * N_FEATURES] = {
    -0.6508202f, 0.5097722f, -1.2337228f, -0.0532521f, -1.1229159f, 1.6540470f, 0.6883647f, -1.6509614f, 0.1335228f,
    0.0460067f, -0.2202333f, -1.3118866f, 0.7373237f, 2.0290810f, -0.6669604f, -0.1141701f, -0.5836888f, 1.0575624f,
    -0.8581407f, 0.5379078f, -1.1681832f, 1.7231106f, 0.6035504f, -0.9893466f, -1.7404573f, -0.1867137f, 1.2667956f,
    0.0456978f, -2.3793497f, -0.3329405f, 0.8111563f, 0.1765173f, -1.2370082f, -0.2966934f, 0.7859013f, -0.2549526f,
    0.5172343f, -0.8871055f, 0.8238127f, 1.3556841f, 1.1215971f, -1.0273244f, -0.5082462f, -0.8267800f, -1.5794823f,
    0.5522782f, -1.1330785f, 1.7138086f, -0.6507874f, -0.6460680f, 1.8554818f, -1.1267276f, -2.0459743f, 0.6410382f,
    -0.2523375f, 0.6617880f, 0.5489376f, 0.4619852f, -0.4746024f, -0.0003697f, 0.0361954f, -0.5737439f, -0.3320549f,
    0.2147877f, -0.4091820f, 0.5105433f, -0.2549917f, 0.7256549f, 1.2967676f, 0.9143633f, 1.0621070f, 0.7043856f,
    -0.2308128f, 1.4318659f, -1.1624271f, -0.6279612f, 0.1247906f, 0.7840269f, 0.5204694f, -1.2611288f, 0.0309508f,
    -0.0346795f, 1.4158082f, -0.0007291f, 1.4361440f, -0.7668502f, -0.3260668f, -1.3728445f, 0.2873365f, -0.6063721f,
    -1.0292581f, 0.4178824f, 0.9157310f, -0.9692114f, -0.7804940f, -0.9260254f, -0.3859651f, -0.2297528f, -1.3349778f,
    -0.5134202f, -1.5800110f, 1.9949687f, 0.6244220f, -1.2177223f, 0.9915147f, -0.3082027f, 1.6118101f, 0.4218985f,
    -0.5460176f, 0.3491550f, -0.5527242f, -1.1854636f, -0.1138991f, -0.3635218f, 0.2389343f,
    0.0219384f, -0.9622598f, -0.0474813f, 0.7326358f, 0.5571648f, 0.2921778f, -0.3245001f, 0.3893674f, -0.9654438f,
    2.2474160f, -1.0582811f, 0.9508945f, 0.4187619f, 1.8211665f, 0.0920841f, -1.3716593f, 0.2471235f, 2.9266804f,
    0.6423155f, 0.4302339f, -0.3996561f, 0.3420596f, -0.5874935f, 2.5338809f, 1.9244964f, -0.3470271f, 0.5726929f,
    -0.1678111f, -0.0381233f, 0.9325519f, -1.8138476f, -0.3276415f, 0.4638781f, 0.0432210f, 0.4310687f, 0.3413879f,
    0.0613701f, 2.2624097f, 0.8661438f, -1.3162207f, -0.8462301f, -0.5522825f, -2.9120784f, -0.6661009f, 0.3629455f,
    0.0692336f, -1.7601512f, -0.0509949f, -0.4100059f, -0.7917813f, 0.6307179f, 0.7991157f, 0.7581872f, 0.5074538f,
    1.7198419f, 0.5657057f, -0.4438897f, -1.6415085f, -0.4491854f, -1.4732541f, -0.0721046f, -0.0621968f, -0.7799130f,
    -0.8931704f, 0.2878720f, -0.1283051f, 0.2643146f, 0.0279607f, -0.6581624f, -0.9437780f, 0.1023974f, -0.5773885f,
    -0.4854030f, -0.0779910f, -0.5788292f, -0.6201881f, -0.0638712f, -1.5210572f, -0.4404180f, -0.5646216f, 1.5218019f,
    -0.8500388f, 1.6136617f, -0.0473108f, 0.7795385f, -0.4595239f, 1.1187528f, -0.0563770f, 1.4184211f, 0.4886331f,
    -0.0749815f, 0.5359983f, -0.3824699f, -0.3304952f, 0.0394500f, 1.1265154f, -1.0702812f, 0.4781831f, -0.4871718f,
    0.3117734f, -1.6161221f, 1.0656620f, 0.5380436f, -1.5163982f, -0.4892797f, 1.7832994f, 0.2729692f, 1.4818417f,
    -1.0082130f, 0.6081049f, -0.7445643f, 0.4783432f, -1.4743328f, 1.3458422f, 1.6130120f,
    -1.8792262f, 1.8484673f, 1.3849861f, -0.1261131f, 0.1235739f, -1.1562306f, 0.9267980f, -0.8541842f, -0.5456453f,
    1.0807229f, 0.6871719f, 1.5999220f, 0.0857200f, 0.0643765f, -0.6652193f, 0.6315511f, -0.5935720f, -0.3014965f,
    0.2773518f, 0.3738276f, 2.8057125f, -1.5851799f, 0.2937420f, -1.1813222f, -1.1644892f, 0.5127671f, 1.8186038f,
    0.6733635f, 0.0446051f, 0.8645218f, 0.2109192f, 0.8471921f, -1.3501014f, -0.5335336f, 1.0280920f, -0.2099704f,
    0.2062016f, 0.2001522f, -0.7085050f, 0.2177808f, 0.8585515f, -0.6995553f, -0.2890121f, 0.4005589f, 0.2937216f,
    -1.2781181f, 0.2576154f, -0.6080619f, 0.0712092f, 0.8092759f, 1.6835956f, 0.6551799f, -1.4022904f, -0.8368019f,
    1.6680532f, -0.2821088f, 0.3304616f, 0.6977349f, 2.1132974f, -0.4811611f, 0.3562436f, -0.3571489f, -0.3633062f,
    -0.2573561f, 0.8150989f, 0.4466900f, 0.3240165f, -0.5003200f, -0.7883118f, 0.9135978f, -1.4993846f, 0.3240471f,
    -0.0786703f, -0.6282073f, 0.6964333f, 1.9262411f, -0.4138403f, -0.5713831f, 0.2393167f, -1.4803677f, 0.6192091f,
    -1.2230358f, -0.5584619f, 2.5682489f, -2.0353664f, -0.9020849f, 0.8208073f, -0.2073143f, -0.2207318f, 0.3983610f,
    0.4446491f, 0.8038915f, 0.7674370f, -1.8846617f, -0.2413774f, -1.0644690f, -0.9980274f, -0.2919966f, 1.2353963f,
    -0.0810859f, -1.1100687f, -0.9678230f, -0.8662646f, -0.5943546f, 2.0659289f, 1.5431497f, 1.3028007f, 1.2337964f,
    -0.6698953f, -0.3711852f, -0.4136081f, -1.9079890f, 1.1019910f, 1.6767138f, 1.3852598f,
    2.1921312f, 0.0481175f, -1.2405908f, 0.4048176f, 1.1256984f, 0.3633264f, -1.0617915f, 1.0527825f, 0.2477558f,
    1.4562189f, -0.2429982f, -1.6518938f, -0.4592452f, -0.0002562f, -0.4249942f, 0.0133688f, -2.0928664f, -1.0806789f,
    -0.4681670f, 1.8024806f, -0.9502344f, 0.6807205f, 0.7654162f, 0.2071097f, 0.5415439f, -0.0996957f, 0.0841828f,
    -1.9037290f, 1.4562030f, -1.0190254f, -0.5198560f, -1.8941003f, -0.2063970f, -0.7685220f, 1.2714125f, -0.2714935f,
    1.5606875f, -0.9305668f, 1.0281322f, 0.2408628f, 0.6902724f, -0.8226173f, 0.3194064f, 0.1231101f, -0.0017706f,
    -1.5258958f, -0.3917265f, -1.0027890f, -0.0123518f, 1.4658547f, -0.1357461f, -0.4692506f, 1.7537895f, 1.2408551f,
    -1.0364736f, 0.4056547f, -0.0220507f, -0.5188558f, 0.3028699f, 0.8829853f, 0.6599047f, -0.9827647f, 0.1630574f,
    -0.5546094f, -0.6929058f, -1.1079180f, -1.3225261f, -0.3769466f, 1.2947751f, 1.1869910f, -0.2721944f, -0.3839315f,
    1.2173061f, 0.3520667f, 0.1868585f, -0.0880355f, -1.2184259f, 1.3613113f, -0.5834544f, 0.1440031f, -1.8364466f,
    -2.4095514f, -1.1996737f, -0.1269129f, -1.4083146f, -1.6047010f, -0.6767282f, 0.8002746f, -0.8242048f, 1.3754098f,
    0.3047008f, 0.4144966f, -0.1588859f, -0.8592231f, 0.3026447f, -0.5526375f, -0.2731295f, -1.2286004f, 1.6610131f,
    -1.5276224f, 0.3496897f, -0.0150922f, 1.2200304f, -0.3669145f, -0.1294290f, -1.2042920f, 1.3880537f, 1.6230607f,
    1.3928531f, 0.0031761f, -0.1663288f, 1.1555502f, -0.8358593f, 0.5712551f, -1.1912474f,
    -1.0478365f, -1.1136146f, 0.6394537f, 1.2566550f, -1.1610464f, -0.4490665f, 1.1372979f, 0.5846997f, -0.6974382f,
    0.0052808f, -0.4434212f, -0.9992705f, -0.1363010f, 1.5254452f, 0.9428662f, -0.6302353f, 0.5549276f, -0.8851824f,
    -1.4923714f, 0.2020442f, -0.6122555f, -0.6531811f, 1.7007569f, 1.1970011f, -0.5528511f, -0.3609500f, -0.5051555f,
    1.3654335f, 0.4084178f, -1.2114935f, -1.2179333f, -1.6873614f, 0.1754161f, -0.6905042f, 0.2725515f, 1.4844683f,
    1.3279750f, 1.9778158f, 0.6046072f, -0.3197173f, -0.1245328f, 0.8629328f, 0.5655893f, 0.4081736f, -1.0202797f,
    -1.5422958f, -1.4439899f, 0.7143701f, -0.5655623f, 1.2160682f, 0.0954969f, 0.8861935f
};
float32 bias0[32] = {
    -0.1806168f, 1.5879613f, -0.0013965f, 0.2919338f, -0.1360423f, 0.3241651f, -2.0670045f, -1.4460087f, -1.2971079f,
    -1.0394535f, -1.0552253f, -0.4211424f, -0.2190345f, -2.5385418f, -0.0527316f, 2.3451896f, -0.6681031f, 0.2685561f,
    -1.2924532f, 1.4036543f, -0.0014405f, 1.7544188f, -0.5511924f, -0.5557422f, 1.2764035f, -0.4834069f, -0.3419060f,
    -1.0085552f, 0.7743430f, 0.6976389f, -0.7475765f, 0.5747182f
};

float32 weight1[32 * 32] = {
    1.0209491f, -0.5000122f, 0.8933060f, 0.5141951f, 1.3021874f, 1.5904000f, -0.6679916f, 0.3970660f, -0.9123174f,
    -1.3631604f, -0.1666019f, -0.2271598f, -0.9136589f, -1.5384785f, -0.2549829f, -0.7693002f, 0.0328049f, 0.4162360f,
    -0.4946491f, 1.2787630f, 0.6097294f, 0.0882314f, 0.4927550f, 0.0829646f, -0.2446697f, -1.3701914f, -1.1744370f,
    0.0638042f, 0.1567818f, 1.4273825f, -0.4674722f, 0.3081645f, -0.9814073f, 1.2406291f, 0.3826780f, 1.2830561f,
    -0.1421836f, 2.2686813f, 0.1364199f, 1.9151098f, 0.1744680f, -1.5528244f, -1.4961980f, 0.1437652f, -1.5782265f,
    1.9429838f, 0.1873924f, -0.5039218f, -1.5838947f, -1.9571005f, -1.5334804f, -0.5526913f, 0.9876444f, -0.5761089f,
    0.8104662f, -0.8105232f, -1.6868028f, 0.4851205f, 0.5067002f, -0.3120629f, -0.1197865f, 0.6067288f, -1.5680081f,
    0.4840167f, 0.6755995f, 1.1574618f, 0.1091985f, -0.3656792f, -1.2581095f, -1.2270079f, 1.5263909f, 1.4479899f,
    1.2021512f, -1.0843002f, 0.6089364f, 1.9273510f, -0.4725528f, -0.4027019f, 0.9957058f, -1.5975056f, -0.1289604f,
    -0.1218010f, 0.7077197f, -1.4529198f, -0.2595558f, -0.0906214f, -0.0212246f, 0.9732568f, -1.6758231f, 0.0759079f,
    1.3354058f, -1.0119459f, -0.2760767f, 0.6309622f, 0.3877467f, 0.8692358f, 0.3080915f, 0.0488332f, -0.7535683f,
    0.7149098f, -0.7160940f, -0.0297244f, 0.4724770f, 1.3351213f, -0.0488597f, -0.8430835f, 1.1521235f, -0.2167971f,
    -0.5615708f, -0.3494747f, -1.1869196f, -0.6075637f, 0.0144492f, 1.4747301f, -1.0703084f,
    -1.2761852f, -1.6093705f, -0.0848983f, -1.3148275f, -0.6966051f, -1.9651974f, 1.2749444f, 0.5944358f, -1.4068477f,
    -0.1075663f, 0.9006228f, 0.7507834f, 1.3864534f, -0.4887168f, 0.4740525f, -1.3977387f, -0.7045819f, 1.6303139f,
    -1.9607316f, 0.9265268f, -0.6838232f, 0.6809923f, -0.7167491f, -2.2054844f, 1.4278409f, 0.9049528f, 0.7002698f,
    -1.1212272f, -0.0175571f, -0.6617005f, -0.8824199f, 0.1583778f, -0.9561113f, -1.5865114f, 0.5141940f, 2.2478592f,
    0.9838097f, -1.1170945f, 0.8157462f, -0.2183858f, 0.0680649f, 1.5674052f, -0.0595336f, -0.6929055f, -0.6765812f,
    -0.0912616f, 0.9454652f, -0.2091197f, 1.4601829f, -0.6853153f, 0.9806276f, -0.7595334f, 0.8334735f, -0.4586439f,
    -0.5169269f, -0.2996971f, 2.8309011f, -1.1420251f, 1.4117831f, -0.0173544f, 0.4094164f, -0.8222708f, 0.8601616f,
    -3.3240006f, -1.5341131f, -0.5321971f, 0.0458376f, -0.0907459f, 0.0207796f, 0.0293397f, 2.6491076f, 1.4811154f,
    0.4617188f, 2.0837071f, 2.6744472f, 0.8047901f, 0.2243642f, -1.7787360f, -0.6796572f, -0.3872127f, 0.0130503f,
    0.5585934f, -0.4161367f, 0.0942546f, 0.3430561f, -0.2357271f, 0.2218477f, 0.1213384f, 0.2651119f, -0.1444185f,
    -1.2364755f, 1.6604591f, 0.9409483f, -1.0141379f, -0.5145882f, 0.0562102f, -0.2437920f, -0.7884495f, 0.0111378f,
    -0.4957941f, 0.3053600f, -0.3948937f, 0.3629136f, 0.3127681f, 0.8410583f, 2.3396931f, -0.0224511f, 1.1739465f,
    -0.6701490f, -0.0690810f, 1.1667962f, -1.0870902f, -1.6266279f, -1.9167114f, -1.1070645f,
    1.0775161f, -0.2038047f, -1.5608781f, -1.1872329f, 1.5845778f, 2.7660848f, -1.2790662f, 2.6713292f, 0.4696078f,
    -1.1445569f, 1.0625159f, -0.6341635f, 1.9701949f, -1.4887458f, -0.1701126f, 0.9591562f, -2.0374683f, 0.0770242f,
    0.3019346f, -0.5089559f, -0.5268437f, -0.5006091f, 1.5501990f, -0.5130024f, 1.0421216f, 0.0887184f, 1.7003687f,
    -1.0377873f, 0.5401712f, 0.0590173f, 0.0884391f, -0.0803168f, 1.0517494f, -0.9284992f, -2.1606451f, -0.3067968f,
    -0.2610659f, -0.2981035f, 0.3206627f, -2.4000902f, -1.1243971f, 1.5913747f, 0.0972164f, -1.6850736f, -0.1113013f,
    0.3339817f, -0.2712511f, -0.4032068f, -0.0376369f, -0.4090089f, -0.4403369f, -0.2530502f, 0.1215238f, -0.5380424f,
    0.2209784f, 0.2713797f, -0.4601412f, -0.3578184f, 0.1920766f, -1.8861034f, -0.3900844f, 0.7269758f, -1.0136764f,
    -0.0847519f, -1.2360362f, -0.0025914f, -0.2748529f, -1.7103560f, -0.3741553f, -1.1112015f, -0.2428586f, 0.8998816f,
    0.6304223f, 1.7742166f, -0.9185465f, -0.7308632f, -1.4565989f, 0.7971995f, 1.5899190f, 1.4841877f, 1.8639664f,
    0.1373814f, 1.7004205f, -1.4711297f, 1.9128591f, -1.0544535f, -0.1337048f, -0.5689636f, 1.7755417f, 0.7759656f,
    -2.5588145f, -0.9839186f, 0.9379877f, 0.0889574f, -1.4290565f, -0.1965694f, 2.3085146f, 0.4074433f, -1.7781266f,
    0.4094231f, 1.5629821f, -1.2436601f, -0.2318562f, 0.6728762f, 0.2488680f, 1.4144110f, -0.6956901f, -0.2656706f,
    1.2882709f, -1.7480056f, 0.9107969f, 1.3474910f, -0.1730460f, -1.5764175f, -1.3305290f,
    1.3968989f, 0.4248960f, 1.9656058f, 0.4186988f, 0.6451399f, 1.0639994f, 0.5905490f, -0.4427805f, 0.3524823f,
    0.7927454f, 1.5178612f, 0.2224984f, 1.4614457f, 0.0086260f, -0.3106761f, -0.2962845f, -1.9416707f, -0.4940835f,
    0.0788431f, 1.4116502f, 0.8385325f, -1.8248742f, -2.0191060f, 1.1480786f, -0.0673725f, -1.7152928f, 1.8594764f,
    -0.7778976f, 0.7481931f, 0.5140475f, 0.7348379f, -1.2379499f, -0.7255040f, -0.1435382f, 2.3949831f, -0.0943214f,
    0.3447489f, -0.0156463f, -0.0992114f, -0.0872697f, -0.9958278f, -0.9678983f, 0.6447145f, -1.4464022f, 0.8289249f,
    -0.4836796f, 1.0465152f, -0.3603088f, -1.9607306f, -0.7985926f, -2.3914674f, 0.0366990f, 0.7472003f, -0.7980465f,
    0.1417307f, 0.6743925f, 1.0821547f, 0.1486569f, -0.0199596f, 0.5813304f, 0.8729063f, 1.1403139f, -1.9100350f,
    0.5719707f, -0.7839729f, 0.2681389f, -1.0791701f, 1.9508759f, -0.8647979f, -1.2743884f, -0.4526314f, -0.9316836f,
    1.1556316f, 0.7331989f, -0.2124109f, 0.0223767f, 1.9791541f, -0.1565542f, 0.8833309f, 0.4615662f, 0.6439018f,
    -0.7804616f, 0.0257362f, -0.8532550f, 0.1997777f, -0.2263301f, -0.8717805f, 0.7295717f, -0.8737537f, -0.2197699f,
    0.3173829f, 0.7884715f, 1.4921595f, -0.4190396f, 0.1967824f, 0.0144873f, -0.1709285f, 2.7651447f, -0.3282040f,
    0.6446260f, 0.3661372f, 1.1243370f, -1.4213947f, -0.6683259f, -1.8744731f, 0.2119465f, -0.5207095f, -0.2784665f,
    -0.3601988f, 0.2194558f, 0.8579359f, 1.0890156f, 0.6508888f, 0.0356463f, 0.6293661f,
    -0.6139802f, -0.4713676f, 0.5642277f, 0.0003365f, 1.1121407f, -0.1050102f, -0.1409632f, -0.7813113f, 0.3063773f,
    -0.6267758f, -1.7620104f, -0.5321988f, 2.1202802f, -0.2246847f, -0.0647367f, -0.2731506f, 0.0264748f, -0.7858403f,
    -1.1114659f, 1.3430486f, -0.8653597f, -0.1562564f, -0.4206495f, -0.0639226f, 1.5207274f, 1.2451949f, 0.8083873f,
    -1.2238130f, -0.6856186f, 0.1626863f, 0.4257686f, 0.5453493f, -0.6745853f, 0.3667124f, -0.6157173f, -2.0852980f,
    0.2910731f, 1.0466682f, -0.0540038f, -0.6332394f, 0.0421865f, 0.1359562f, -0.8824952f, 1.4810275f, 0.8503649f,
    -0.0945840f, -0.6857554f, 2.1121712f, -0.5634659f, -0.3459792f, 0.3185104f, 0.2932958f, -0.6979507f, -0.3792773f,
    0.9693728f, 1.8459502f, 1.6843014f, -0.0369624f, -0.2820563f, -0.8894857f, 0.8912199f, -0.5979304f, 0.5811249f,
    -0.3996775f, -0.5779776f, -2.4909786f, 1.4258520f, 0.3280641f, 1.1714886f, -1.0358690f, -2.5779030f, -0.9691064f,
    0.1350624f, -1.9734131f, -1.6029076f, -1.0302862f, 1.1286123f, 0.2691602f, 0.6348432f, 0.4526739f, 1.0613446f,
    -0.0619313f, -2.3483850f, 1.1895291f, -0.5837018f, -1.5283208f, 0.2924176f, 0.3892570f, -0.8631443f, -1.2072669f,
    0.7163581f, 0.1107326f, 0.0299753f, -1.0862003f, -0.7934871f, -0.0743945f, -1.4837358f, -1.2721784f, 1.1334085f,
    -1.1174588f, -0.7673762f, 2.0420634f, -0.5995473f, 0.8260218f, -2.1160177f, -1.5883534f, -0.1950060f, -0.5171328f,
    -1.8020729f, -0.3491852f, 2.5632332f, 0.7722078f, -0.7119221f, -1.4306438f, -0.8480078f,
    -2.2145736f, 0.3659492f, -0.6033415f, -0.5880782f, 0.1393781f, -0.2065686f, -1.5585752f, 1.1667279f, 0.1129796f,
    0.7061743f, -0.0222257f, 1.6060269f, -0.8729386f, 2.3363557f, -0.6700144f, -0.1435582f, -0.6133137f, -0.2418741f,
    0.0757467f, -0.7710005f, 1.6022791f, 0.0157467f, 0.2302134f, 0.7199225f, 0.1677892f, -1.1791724f, -2.1446346f,
    -0.6723913f, -1.0431565f, -1.7282537f, 0.0889806f, 1.4900422f, 1.4986771f, 0.6163968f, 0.9471493f, -0.5091502f,
    -0.0865355f, -0.8236045f, -0.1435348f, -0.9964029f, -0.6970794f, -0.6669427f, -1.0895307f, 0.7232183f, 0.1441684f,
    -1.2768345f, 1.5889974f, -0.5825889f, 0.2322744f, -1.0111364f, 1.3262389f, 1.2544074f, 0.1317842f, -0.7039230f,
    0.6408381f, -0.9582541f, -0.2450556f, 0.6797755f, 3.4935975f, 1.0160613f, -0.5282132f, 0.7624624f, -0.0771824f,
    0.3196891f, -0.3862321f, -0.8420955f, 1.3854946f, 0.3863669f, 0.7199964f, -0.3862711f, -0.1914410f, 1.1454441f,
    0.9117138f, -2.0066346f, 0.3710302f, 1.4700445f, 0.0589966f, 0.2357427f, -0.2931764f, -0.1519141f, -0.3719799f,
    -0.0986241f, -0.7488377f, 1.1524252f, 0.0802163f, -0.4429843f, 1.7660612f, 0.0140341f, -1.0365527f, -0.6192126f,
    0.8332615f, 0.2515412f, -1.0761718f, -0.0693715f, 0.5272645f, 1.3706972f, 0.4380272f, 1.9836467f, 0.6351858f,
    2.5189094f, -0.2682289f, -0.4727275f, 0.4911240f, 0.2515006f, -1.3540549f, -0.5443355f, -0.2989469f, -1.2596640f,
    -0.6602715f, 1.0577506f, -0.6549499f, -0.8395644f, -0.8117205f, -0.7177834f, -1.6358066f,
    0.6301145f, 0.4088875f, 0.1029511f, 0.2381296f, -0.5277685f, -0.2968148f, 2.2176368f, 0.2626361f, -0.3995939f,
    -1.6625427f, -0.2377431f, 0.2497506f, -0.2976283f, -2.3861999f, 0.8754221f, -1.1193249f, -0.4649175f, 1.3076078f,
    0.0901815f, 0.3393796f, 0.0438766f, -0.4324155f, 0.7682339f, -0.7359734f, -0.6646480f, -0.1823239f, 0.4672447f,
    0.5406928f, 1.7159964f, 2.0834122f, -2.2719023f, -1.2611203f, -1.0543630f, -0.7918046f, -0.3150988f, 2.3245305f,
    0.9202283f, -0.2336375f, -0.6560712f, 0.2423324f, -1.2172109f, -0.0704784f, -0.0527504f, -1.8376979f, 1.4710623f,
    1.3714623f, 0.1067706f, -2.1367778f, -0.0550897f, -0.5335566f, -1.0421404f, 0.6437132f, -0.0961041f, -0.7245269f,
    -0.9473972f, 0.5097648f, 0.2031592f, -0.8169128f, 2.3672620f, 0.1153278f, 0.0514834f, 0.6801869f, -1.9588584f,
    0.8493446f, -0.0668184f, -0.4385601f, -0.4350088f, 1.6284677f, -0.6524574f, 0.4737712f, -2.2367364f, 2.0002842f,
    -1.3810190f, 0.9159370f, -0.1764164f, -0.6465985f, 1.2386748f, 0.8177173f, 1.6574438f, -0.2168280f, -0.4776187f,
    0.1587507f, 1.5139511f, -1.3775430f, 0.4835019f, -0.8617656f, -0.2077472f, 1.5086316f, 0.8858948f, 0.5065278f,
    0.9187778f, -0.3292155f, 0.0390147f, 2.3731062f, -0.8512920f, -0.1388699f, -0.1683730f, -0.5380718f, 1.1766812f,
    0.2303595f, 1.5777226f, -0.0066372f, -0.2993713f, 1.4203883f, -0.6298641f, 0.2060212f, -2.0425410f, -0.9631052f,
    0.1016254f, 0.8312787f, 0.8044168f, 0.9522582f, 0.1417321f, -1.1336286f, -0.3864695f,
    -1.8810907f, 0.0600339f, 1.8500756f, 0.2832600f, -1.6610863f, 0.1011201f, -0.2570214f, -0.1890337f, 1.1578093f,
    0.2847904f, -1.3888507f, -0.8274423f, 1.7615546f, -0.0870357f, 0.7323090f, -2.5413424f, -0.1201110f, -0.4417346f,
    -0.5947856f, -0.4078974f, 1.0296915f, 0.1345763f, 0.3398729f, -0.7102418f, -0.6049851f, -0.1777444f, 0.8723497f,
    0.4532860f, 0.8845469f, -0.7754713f, 1.0305398f, -1.3845315f, -1.1687811f, -1.7513426f, -0.0583361f, 0.2910541f,
    -0.5197445f, -0.0368134f, -0.7222723f, 0.7856376f, -0.2753308f, 0.0159806f, -1.5286698f, 0.5668592f, 0.9666294f,
    0.2833361f, -1.0798275f, 0.2213231f, 1.8038254f, 0.2321349f, -0.8389051f, -0.4955200f, 0.9326619f, 1.4390797f,
    -0.6792154f, 1.5297282f, 0.2263579f, -0.4439860f, -0.4477033f, 0.1745132f, -1.5931040f, -0.4754883f, -0.0413102f,
    -1.1586488f, -0.2959756f, 1.0158027f, 1.5251944f, -0.3353807f, 0.6850049f, -1.9710227f, -1.5998941f, -1.1169412f,
    -0.7904670f, -0.1358771f, -2.1238446f, -1.4506413f, 1.1410649f, -0.5075381f, -1.1899946f, 0.9393461f, -0.8040004f,
    -1.1114401f, 0.0387163f, 0.8826965f, -0.1344098f, -0.3393667f, 0.3666171f, 1.7058565f, -0.3689691f, -1.3910207f,
    -0.6340955f, 1.6209468f, -2.5869264f, -0.2105188f, 1.6234698f, 0.2829179f, -0.4196829f, 1.0805962f, 0.1945117f,
    1.1263230f, 1.5845953f, -0.3970880f, -0.7587825f, -0.1071717f, 1.4673898f, -0.5934056f, -0.5151257f, 1.4311343f,
    0.4233595f, -1.1208161f, -0.2931037f, 0.7013237f, 1.0393500f, 0.7542053f, 0.7331912f,
    -1.6473614f, -1.2516662f, -0.5227049f, 0.5950088f, 1.1479537f, 2.4129788f, 0.6567728f, -1.6804350f, -0.5501909f,
    -0.5753805f, 0.5327833f, 1.0108882f, -1.3504455f, 1.2074706f, -0.8070357f, 0.7252814f, -1.0617059f, 1.4994662f,
    -0.6825287f, -1.2558652f, 1.0367230f, -0.5706670f, 0.5040779f, -2.1210369f, 0.6497635f, 1.2982130f, -0.7031776f,
    -0.5327226f, -2.5408393f, 0.3979504f, -1.6296482f, -0.9954746f, 0.7347300f, -0.1341896f, 0.1325812f, -0.4161598f,
    0.3799699f, 0.2316597f, 1.3178570f, -0.0551072f, -0.8418232f, 0.2662513f, -0.1154076f, 0.3131733f, 1.3109780f,
    0.8356779f, -0.5182791f, 1.0455271f, -2.7335594f, -0.5251331f, -0.4084574f, -0.6871544f, 0.1559608f, 0.2393296f,
    0.1030912f, 0.6463127f, 1.8917209f, -0.8012191f, -1.2480514f, -0.4707774f, -0.2818907f, 0.0734609f, 0.5575017f,
    1.0023197f, -0.5978915f, -0.6078414f, -0.6283008f, -0.7888776f, -0.4110456f, 2.5716229f, -0.6863594f, 0.3391653f,
    -0.6381016f, 0.0748986f, 0.3598498f, 0.9091710f, 0.2616166f, -0.7145220f, -1.0462982f, 0.8406740f, 1.8229896f,
    1.1606554f, 0.9671160f, 0.2362184f, 0.2848801f, 0.0295226f, 1.6962230f, -2.4274797f, 1.0389284f, -1.1956792f,
    -0.6802832f, 0.1203920f, 0.9152082f, -0.3438861f, -1.6029237f, 0.0793790f, -0.2315296f, 0.0219279f, 0.2320312f,
    0.0184184f, 1.3317205f, -1.0606178f, 0.0826813f, 0.3678237f
};
float32 bias1[32] = {
    -0.5268511f, 0.5599489f, -0.8638524f, -0.2242214f, -0.2751865f, -0.0348392f, -0.5995144f, 1.1664954f, -0.3337132f,
    0.4873472f, 0.1197677f, -0.3209554f, 0.4201262f, 1.1177678f, 0.0659751f, -1.1035660f, -1.6539085f, 0.2750613f,
    1.5838201f, 0.6207055f, 1.2575997f, -1.0352538f, -0.3984343f, -0.4660163f, -0.4339586f, -0.9912338f, 1.3475280f,
    0.4582093f, 0.3232574f, 0.8147477f, 0.5081579f, 0.0231207f
};

float32 weight2[N_OUT * 32] = {
    -0.2987093f, -0.6532073f, -1.1261930f, 0.7638378f, 0.7342755f, 0.1239465f, -1.2080830f, -0.6032410f, -1.1511680f,
    1.1628686f, 2.7213236f, 0.6006663f, -0.0770681f, 0.9752861f, -0.8217321f, -0.6693695f, 1.1436699f, -1.1661124f,
    0.6739187f, -2.0021027f, -0.5229118f, -0.2404613f, -0.7459757f, -1.1060466f, 0.0894217f, 0.3970337f, -0.7783343f,
    0.3374465f, 0.3362343f, 0.8350035f, 0.9656302f, 0.2029904f
};
float32 bias2[N_OUT] = {-1.7238570f};

float32 xMean[N_FEATURES] = {1.7475835f, 1.0661999f, 0.6822248f,-1.2487441f,-0.2725879f, 0.5471996f,-0.2631807f, 0.3157207f, 1.1646589f,-0.4165937f,-0.2720930f,-0.7808266f, 0.7845507f, 1.3166817f,-0.5393335f,-0.9792225f};
float32 xStd[N_FEATURES] = {-0.8318486f,-0.4756612f,-0.5157296f,-2.1550643f,-1.3050560f, 0.6955969f, 0.9732907f,-2.0307136f, 0.0182198f, 0.1090128f, 1.6924198f,-0.3762892f, 0.1391411f, 0.3999771f, 0.7094954f,-0.8356588f};

void MODEL_Init()
{
    DenseDefF32 layers[] = {
        {32, N_FEATURES, ACT_FN_RELU, weight0, bias0},
        {32, 32, ACT_FN_RELU, weight1, bias1},
        {N_OUT, 32, ACT_FN_STRAIGHT, weight2, bias2}
    };
    nn = fcnn_eval_create_f32(layers, 3);
}

extern void TESTSTART_Task1(void);

extern void TESTEND_Task1(void);

void MODEL_Run()
{
    TESTSTART_Task1();
    float32 xRaw[N_FEATURES] = {1, 2, 3, 4, 5, 6, 7, 8, 9, 10, 11, 12, 13, 14, 15, 16};
    float32 xTf[N_FEATURES] = {0};
    for (uint8 i = 0; i < N_FEATURES; i++) {
        xTf[i] = (xRaw[i] - xMean[i]) / xStd[i];
    }
    fcnn_eval_forward_f32(nn, xTf);
    TESTEND_Task1();
}
